<?xml version="1.0"?>
<opencv_storage>
<haarcascade type_id="opencv-haar-classifier">
  <size>
    35 15</size>
  <stages>
    <_>
      <!-- stage 0 -->
      <trees>
        <_>
          <!-- tree 0 -->
          <_>
            <!-- root node -->
            <feature>
              <rects>
                <_>
                  3 3 20 8 -1.</_>
                <_>
                  3 3 10 4 2.</_>
                <_>
                  13 7 10 4 2.</_></rects>
              <tilted>0</tilted></feature>
            <threshold>5.9993449598550797e-02</threshold>
            <left_node>1</left_node>
            <right_node>2</right_node></_>
          <_>
            <!-- node 1 -->
            <feature>
              <rects>
                <_>
                  1 14 6 1 -1.</_>
                <_>
                  4 14 3 1 2.</_></rects>
              <tilted>0</tilted></feature>
            <threshold>-1.4227119972929358e-03</threshold>
            <left_node>3</left_node>
            <right_val>-8.7142652273178101e-01</right_val></_>
          <_>
            <!-- node 2 -->
            <feature>
              <rects>
                <_>
                  30 0 2 14 -1.</_>
                <_>
                  30 7 2 7 2.</_></rects>
              <tilted>0</tilted></feature>
            <threshold>4.4937669299542904e-03</threshold>
            <left_val>9.6710830926895142e-01</left_val>
            <right_val>-7.3395252227783203e-01</right_val></_>
          <_>
            <!-- node 3 -->
            <feature>
              <rects>
                <_>
                  1 0 33 8 -1.</_>
                <_>
                  1 4 33 4 2.</_></rects>
              <tilted>0</tilted></feature>
            <threshold>-7.2950832545757294e-02</threshold>
            <left_val>8.9517122507095337e-01</left_val>
            <right_val>-4.6251669526100159e-01</right_val></_></_>
        <_>
          <!-- tree 1 -->
          <_>
            <!-- root node -->
            <feature>
              <rects>
                <_>
                  6 3 6 12 -1.</_>
                <_>
                  6 9 6 6 2.</_></rects>
              <tilted>0</tilted></feature>
            <threshold>-5.3395079448819160e-03</threshold>
            <left_node>1</left_node>
            <right_val>-8.3700162172317505e-01</right_val></_>
          <_>
            <!-- node 1 -->
            <feature>
              <rects>
                <_>
                  27 5 8 10 -1.</_>
                <_>
                  27 5 4 5 2.</_>
                <_>
                  31 10 4 5 2.</_></rects>
              <tilted>0</tilted></feature>
            <threshold>3.6853519268333912e-03</threshold>
            <left_node>3</left_node>
            <right_node>2</right_node></_>
          <_>
            <!-- node 2 -->
            <feature>
              <rects>
                <_>
                  13 14 3 1 -1.</_>
                <_>
                  14 14 1 1 3.</_></rects>
              <tilted>0</tilted></feature>
            <threshold>-4.2209381354041398e-04</threshold>
            <left_val>-5.0410848855972290e-01</left_val>
            <right_val>8.9269161224365234e-01</right_val></_>
          <_>
            <!-- node 3 -->
            <feature>
              <rects>
                <_>
                  16 2 7 6 -1.</_>
                <_>
                  16 4 7 2 3.</_></rects>
              <tilted>0</tilted></feature>
            <threshold>-8.9482981711626053e-03</threshold>
            <left_val>5.9647887945175171e-01</left_val>
            <right_val>-5.9338110685348511e-01</right_val></_></_>
        <_>
          <!-- tree 2 -->
          <_>
            <!-- root node -->
            <feature>
              <rects>
                <_>
                  0 7 6 7 -1.</_>
                <_>
                  3 7 3 7 2.</_></rects>
              <tilted>0</tilted></feature>
            <threshold>-1.2544600293040276e-02</threshold>
            <left_node>3</left_node>
            <right_node>1</right_node></_>
          <_>
            <!-- node 1 -->
            <feature>
              <rects>
                <_>
                  0 2 6 8 -1.</_>
                <_>
                  3 2 3 8 2.</_></rects>
              <tilted>0</tilted></feature>
            <threshold>1.8953790888190269e-02</threshold>
            <left_node>2</left_node>
            <right_val>7.2700452804565430e-01</right_val></_>
          <_>
            <!-- node 2 -->
            <feature>
              <rects>
                <_>
                  8 3 19 9 -1.</_>
                <_>
                  8 6 19 3 3.</_></rects>
              <tilted>0</tilted></feature>
            <threshold>1.6099360585212708e-01</threshold>
            <left_val>-8.0974298715591431e-01</left_val>
            <right_val>9.9999862909317017e-01</right_val></_>
          <_>
            <!-- node 3 -->
            <feature>
              <rects>
                <_>
                  4 11 8 4 -1.</_>
                <_>
                  8 11 4 4 2.</_></rects>
              <tilted>0</tilted></feature>
            <threshold>2.3507259786128998e-02</threshold>
            <left_val>9.4074028730392456e-01</left_val>
            <right_val>-8.5739928483963013e-01</right_val></_></_></trees>
      <stage_threshold>-2.2745509147644043e+00</stage_threshold>
      <parent>-1</parent>
      <next>-1</next></_>
    <_>
      <!-- stage 1 -->
      <trees>
        <_>
          <!-- tree 0 -->
          <_>
            <!-- root node -->
            <feature>
              <rects>
                <_>
                  15 4 18 8 -1.</_>
                <_>
                  15 4 9 4 2.</_>
                <_>
                  24 8 9 4 2.</_></rects>
              <tilted>0</tilted></feature>
            <threshold>-4.8950888216495514e-02</threshold>
            <left_node>2</left_node>
            <right_node>1</right_node></_>
          <_>
            <!-- node 1 -->
            <feature>
              <rects>
                <_>
                  12 8 16 6 -1.</_>
                <_>
                  12 10 16 2 3.</_></rects>
              <tilted>0</tilted></feature>
            <threshold>-6.2719598412513733e-02</threshold>
            <left_val>4.8920831084251404e-01</left_val>
            <right_node>3</right_node></_>
          <_>
            <!-- node 2 -->
            <feature>
              <rects>
                <_>
                  4 1 4 14 -1.</_>
                <_>
                  4 8 4 7 2.</_></rects>
              <tilted>0</tilted></feature>
            <threshold>-1.8550720065832138e-02</threshold>
            <left_val>9.7490501403808594e-01</left_val>
            <right_val>-4.1778010129928589e-01</right_val></_>
          <_>
            <!-- node 3 -->
            <feature>
              <rects>
                <_>
                  11 9 22 4 -1.</_>
                <_>
                  11 11 22 2 2.</_></rects>
              <tilted>0</tilted></feature>
            <threshold>-5.7365771383047104e-02</threshold>
            <left_val>2.7960520982742310e-01</left_val>
            <right_val>-8.9778220653533936e-01</right_val></_></_>
        <_>
          <!-- tree 1 -->
          <_>
            <!-- root node -->
            <feature>
              <rects>
                <_>
                  28 1 3 14 -1.</_>
                <_>
                  28 8 3 7 2.</_></rects>
              <tilted>0</tilted></feature>
            <threshold>-1.5345119871199131e-02</threshold>
            <left_node>1</left_node>
            <right_val>-7.9139739274978638e-01</right_val></_>
          <_>
            <!-- node 1 -->
            <feature>
              <rects>
                <_>
                  4 3 20 8 -1.</_>
                <_>
                  4 3 10 4 2.</_>
                <_>
                  14 7 10 4 2.</_></rects>
              <tilted>0</tilted></feature>
            <threshold>3.0495669692754745e-02</threshold>
            <left_node>2</left_node>
            <right_val>9.2199802398681641e-01</right_val></_>
          <_>
            <!-- node 2 -->
            <feature>
              <rects>
                <_>
                  0 8 6 4 -1.</_>
                <_>
                  3 8 3 4 2.</_></rects>
              <tilted>0</tilted></feature>
            <threshold>-6.8592121824622154e-03</threshold>
            <left_val>9.2115497589111328e-01</left_val>
            <right_node>3</right_node></_>
          <_>
            <!-- node 3 -->
            <feature>
              <rects>
                <_>
                  19 0 16 3 -1.</_>
                <_>
                  27 0 8 3 2.</_></rects>
              <tilted>0</tilted></feature>
            <threshold>-1.4239439740777016e-02</threshold>
            <left_val>5.4972207546234131e-01</left_val>
            <right_val>-8.3597248792648315e-01</right_val></_></_>
        <_>
          <!-- tree 2 -->
          <_>
            <!-- root node -->
            <feature>
              <rects>
                <_>
                  31 11 4 4 -1.</_>
                <_>
                  33 11 2 4 2.</_></rects>
              <tilted>0</tilted></feature>
            <threshold>3.0301159713417292e-03</threshold>
            <left_node>1</left_node>
            <right_node>2</right_node></_>
          <_>
            <!-- node 1 -->
            <feature>
              <rects>
                <_>
                  11 5 14 8 -1.</_>
                <_>
                  11 7 14 4 2.</_></rects>
              <tilted>0</tilted></feature>
            <threshold>7.8300133347511292e-02</threshold>
            <left_node>3</left_node>
            <right_val>9.7448432445526123e-01</right_val></_>
          <_>
            <!-- node 2 -->
            <feature>
              <rects>
                <_>
                  19 14 4 1 -1.</_>
                <_>
                  20 14 2 1 2.</_></rects>
              <tilted>0</tilted></feature>
            <threshold>4.9489492084830999e-04</threshold>
            <left_val>8.3087050914764404e-01</left_val>
            <right_val>-5.6255477666854858e-01</right_val></_>
          <_>
            <!-- node 3 -->
            <feature>
              <rects>
                <_>
                  31 1 4 1 -1.</_>
                <_>
                  33 1 2 1 2.</_></rects>
              <tilted>0</tilted></feature>
            <threshold>-2.0466770511120558e-03</threshold>
            <left_val>4.1101288795471191e-01</left_val>
            <right_val>-7.8740417957305908e-01</right_val></_></_></trees>
      <stage_threshold>-1.9965820312500000e+00</stage_threshold>
      <parent>0</parent>
      <next>-1</next></_>
    <_>
      <!-- stage 2 -->
      <trees>
        <_>
          <!-- tree 0 -->
          <_>
            <!-- root node -->
            <feature>
              <rects>
                <_>
                  6 4 12 8 -1.</_>
                <_>
                  6 4 6 4 2.</_>
                <_>
                  12 8 6 4 2.</_></rects>
              <tilted>0</tilted></feature>
            <threshold>3.5800378769636154e-02</threshold>
            <left_node>1</left_node>
            <right_node>2</right_node></_>
          <_>
            <!-- node 1 -->
            <feature>
              <rects>
                <_>
                  13 13 13 2 -1.</_>
                <_>
                  13 14 13 1 2.</_></rects>
              <tilted>0</tilted></feature>
            <threshold>-1.7270199954509735e-02</threshold>
            <left_val>5.7792627811431885e-01</left_val>
            <right_node>3</right_node></_>
          <_>
            <!-- node 2 -->
            <feature>
              <rects>
                <_>
                  27 1 6 12 -1.</_>
                <_>
                  27 7 6 6 2.</_></rects>
              <tilted>0</tilted></feature>
            <threshold>-2.3939259350299835e-02</threshold>
            <left_val>9.6495932340621948e-01</left_val>
            <right_val>-4.0570190548896790e-01</right_val></_>
          <_>
            <!-- node 3 -->
            <feature>
              <rects>
                <_>
                  6 8 24 2 -1.</_>
                <_>
                  12 8 12 2 2.</_></rects>
              <tilted>0</tilted></feature>
            <threshold>6.2299799174070358e-02</threshold>
            <left_val>-8.2051867246627808e-01</left_val>
            <right_val>9.9997681379318237e-01</right_val></_></_>
        <_>
          <!-- tree 1 -->
          <_>
            <!-- root node -->
            <feature>
              <rects>
                <_>
                  19 5 12 6 -1.</_>
                <_>
                  19 5 6 3 2.</_>
                <_>
                  25 8 6 3 2.</_></rects>
              <tilted>0</tilted></feature>
            <threshold>-2.5569729506969452e-02</threshold>
            <left_node>2</left_node>
            <right_node>1</right_node></_>
          <_>
            <!-- node 1 -->
            <feature>
              <rects>
                <_>
                  6 3 4 6 -1.</_>
                <_>
                  4 5 4 2 3.</_></rects>
              <tilted>1</tilted></feature>
            <threshold>-1.7728159204125404e-02</threshold>
            <left_node>3</left_node>
            <right_val>-6.5032917261123657e-01</right_val></_>
          <_>
            <!-- node 2 -->
            <feature>
              <rects>
                <_>
                  19 14 4 1 -1.</_>
                <_>
                  20 14 2 1 2.</_></rects>
              <tilted>0</tilted></feature>
            <threshold>4.1582679841667414e-04</threshold>
            <left_val>8.4085041284561157e-01</left_val>
            <right_val>-6.7680662870407104e-01</right_val></_>
          <_>
            <!-- node 3 -->
            <feature>
              <rects>
                <_>
                  7 4 6 5 -1.</_>
                <_>
                  7 4 3 5 2.</_></rects>
              <tilted>1</tilted></feature>
            <threshold>8.0322390422224998e-03</threshold>
            <left_val>-5.2635288238525391e-01</left_val>
            <right_val>9.0037071704864502e-01</right_val></_></_>
        <_>
          <!-- tree 2 -->
          <_>
            <!-- root node -->
            <feature>
              <rects>
                <_>
                  0 13 8 2 -1.</_>
                <_>
                  4 13 4 2 2.</_></rects>
              <tilted>0</tilted></feature>
            <threshold>-3.6559980362653732e-03</threshold>
            <left_node>2</left_node>
            <right_node>1</right_node></_>
          <_>
            <!-- node 1 -->
            <feature>
              <rects>
                <_>
                  0 0 10 9 -1.</_>
                <_>
                  5 0 5 9 2.</_></rects>
              <tilted>0</tilted></feature>
            <threshold>5.1200680434703827e-02</threshold>
            <left_val>-7.0849370956420898e-01</left_val>
            <right_val>5.6921577453613281e-01</right_val></_>
          <_>
            <!-- node 2 -->
            <feature>
              <rects>
                <_>
                  14 13 12 2 -1.</_>
                <_>
                  18 13 4 2 3.</_></rects>
              <tilted>0</tilted></feature>
            <threshold>-9.1670416295528412e-03</threshold>
            <left_val>-8.8568741083145142e-01</left_val>
            <right_node>3</right_node></_>
          <_>
            <!-- node 3 -->
            <feature>
              <rects>
                <_>
                  0 1 13 14 -1.</_>
                <_>
                  0 8 13 7 2.</_></rects>
              <tilted>0</tilted></feature>
            <threshold>6.3528127968311310e-02</threshold>
            <left_val>8.0495822429656982e-01</left_val>
            <right_val>-8.1528878211975098e-01</right_val></_></_>
        <_>
          <!-- tree 3 -->
          <_>
            <!-- root node -->
            <feature>
              <rects>
                <_>
                  25 8 10 4 -1.</_>
                <_>
                  25 8 5 2 2.</_>
                <_>
                  30 10 5 2 2.</_></rects>
              <tilted>0</tilted></feature>
            <threshold>3.6577188875526190e-03</threshold>
            <left_node>3</left_node>
            <right_node>1</right_node></_>
          <_>
            <!-- node 1 -->
            <feature>
              <rects>
                <_>
                  9 3 24 12 -1.</_>
                <_>
                  9 3 12 6 2.</_>
                <_>
                  21 9 12 6 2.</_></rects>
              <tilted>0</tilted></feature>
            <threshold>9.0734787285327911e-02</threshold>
            <left_node>2</left_node>
            <right_val>-8.3132702112197876e-01</right_val></_>
          <_>
            <!-- node 2 -->
            <feature>
              <rects>
                <_>
                  13 10 10 5 -1.</_>
                <_>
                  18 10 5 5 2.</_></rects>
              <tilted>0</tilted></feature>
            <threshold>-1.7315100878477097e-02</threshold>
            <left_val>-6.1453408002853394e-01</left_val>
            <right_val>8.0004090070724487e-01</right_val></_>
          <_>
            <!-- node 3 -->
            <feature>
              <rects>
                <_>
                  18 3 14 6 -1.</_>
                <_>
                  18 3 7 3 2.</_>
                <_>
                  25 6 7 3 2.</_></rects>
              <tilted>0</tilted></feature>
            <threshold>-3.0717670917510986e-02</threshold>
            <left_val>4.9338358640670776e-01</left_val>
            <right_val>-5.7024627923965454e-01</right_val></_></_></trees>
      <stage_threshold>-1.4972170591354370e+00</stage_threshold>
      <parent>1</parent>
      <next>-1</next></_>
    <_>
      <!-- stage 3 -->
      <trees>
        <_>
          <!-- tree 0 -->
          <_>
            <!-- root node -->
            <feature>
              <rects>
                <_>
                  5 5 14 6 -1.</_>
                <_>
                  5 5 7 3 2.</_>
                <_>
                  12 8 7 3 2.</_></rects>
              <tilted>0</tilted></feature>
            <threshold>3.5900369286537170e-02</threshold>
            <left_node>2</left_node>
            <right_node>1</right_node></_>
          <_>
            <!-- node 1 -->
            <feature>
              <rects>
                <_>
                  26 3 4 12 -1.</_>
                <_>
                  26 9 4 6 2.</_></rects>
              <tilted>0</tilted></feature>
            <threshold>2.7298589702695608e-03</threshold>
            <left_val>9.0792989730834961e-01</left_val>
            <right_val>-8.2332432270050049e-01</right_val></_>
          <_>
            <!-- node 2 -->
            <feature>
              <rects>
                <_>
                  13 0 10 9 -1.</_>
                <_>
                  13 3 10 3 3.</_></rects>
              <tilted>0</tilted></feature>
            <threshold>-1.1604289710521698e-01</threshold>
            <left_val>6.2039661407470703e-01</left_val>
            <right_node>3</right_node></_>
          <_>
            <!-- node 3 -->
            <feature>
              <rects>
                <_>
                  5 2 7 4 -1.</_>
                <_>
                  4 3 7 2 2.</_></rects>
              <tilted>1</tilted></feature>
            <threshold>-1.6114529222249985e-02</threshold>
            <left_val>3.9396861195564270e-01</left_val>
            <right_val>-7.9438561201095581e-01</right_val></_></_>
        <_>
          <!-- tree 1 -->
          <_>
            <!-- root node -->
            <feature>
              <rects>
                <_>
                  31 1 4 14 -1.</_>
                <_>
                  31 1 2 7 2.</_>
                <_>
                  33 8 2 7 2.</_></rects>
              <tilted>0</tilted></feature>
            <threshold>1.1215009726583958e-02</threshold>
            <left_node>2</left_node>
            <right_node>1</right_node></_>
          <_>
            <!-- node 1 -->
            <feature>
              <rects>
                <_>
                  16 14 4 1 -1.</_>
                <_>
                  17 14 2 1 2.</_></rects>
              <tilted>0</tilted></feature>
            <threshold>1.4160850550979376e-03</threshold>
            <left_val>7.2375357151031494e-01</left_val>
            <right_val>-9.5380169153213501e-01</right_val></_>
          <_>
            <!-- node 2 -->
            <feature>
              <rects>
                <_>
                  31 14 2 1 -1.</_>
                <_>
                  32 14 1 1 2.</_></rects>
              <tilted>0</tilted></feature>
            <threshold>2.8077669412596151e-05</threshold>
            <left_val>-7.5881671905517578e-01</left_val>
            <right_node>3</right_node></_>
          <_>
            <!-- node 3 -->
            <feature>
              <rects>
                <_>
                  22 0 8 2 -1.</_>
                <_>
                  22 0 8 1 2.</_></rects>
              <tilted>1</tilted></feature>
            <threshold>-2.9053778853267431e-03</threshold>
            <left_val>-7.3936951160430908e-01</left_val>
            <right_val>4.4847160577774048e-01</right_val></_></_>
        <_>
          <!-- tree 2 -->
          <_>
            <!-- root node -->
            <feature>
              <rects>
                <_>
                  1 6 4 8 -1.</_>
                <_>
                  3 6 2 8 2.</_></rects>
              <tilted>0</tilted></feature>
            <threshold>-1.6768319532275200e-02</threshold>
            <left_val>8.2070261240005493e-01</left_val>
            <right_node>1</right_node></_>
          <_>
            <!-- node 1 -->
            <feature>
              <rects>
                <_>
                  19 13 16 2 -1.</_>
                <_>
                  19 13 8 1 2.</_>
                <_>
                  27 14 8 1 2.</_></rects>
              <tilted>0</tilted></feature>
            <threshold>8.4959324449300766e-03</threshold>
            <left_node>2</left_node>
            <right_node>3</right_node></_>
          <_>
            <!-- node 2 -->
            <feature>
              <rects>
                <_>
                  2 0 2 6 -1.</_>
                <_>
                  3 0 1 6 2.</_></rects>
              <tilted>0</tilted></feature>
            <threshold>4.1246581822633743e-03</threshold>
            <left_val>-7.3697131872177124e-01</left_val>
            <right_val>3.7149620056152344e-01</right_val></_>
          <_>
            <!-- node 3 -->
            <feature>
              <rects>
                <_>
                  14 13 8 2 -1.</_>
                <_>
                  16 13 4 2 2.</_></rects>
              <tilted>0</tilted></feature>
            <threshold>-1.8101360183209181e-03</threshold>
            <left_val>-6.4532989263534546e-01</left_val>
            <right_val>8.0943918228149414e-01</right_val></_></_>
        <_>
          <!-- tree 3 -->
          <_>
            <!-- root node -->
            <feature>
              <rects>
                <_>
                  5 1 6 14 -1.</_>
                <_>
                  5 8 6 7 2.</_></rects>
              <tilted>0</tilted></feature>
            <threshold>-4.1861180216073990e-02</threshold>
            <left_node>1</left_node>
            <right_node>3</right_node></_>
          <_>
            <!-- node 1 -->
            <feature>
              <rects>
                <_>
                  1 14 8 1 -1.</_>
                <_>
                  5 14 4 1 2.</_></rects>
              <tilted>0</tilted></feature>
            <threshold>-5.1933707436546683e-04</threshold>
            <left_node>2</left_node>
            <right_val>-4.4320788979530334e-01</right_val></_>
          <_>
            <!-- node 2 -->
            <feature>
              <rects>
                <_>
                  11 14 4 1 -1.</_>
                <_>
                  12 14 2 1 2.</_></rects>
              <tilted>0</tilted></feature>
            <threshold>-6.7217618925496936e-04</threshold>
            <left_val>-4.9509990215301514e-01</left_val>
            <right_val>8.1290018558502197e-01</right_val></_>
          <_>
            <!-- node 3 -->
            <feature>
              <rects>
                <_>
                  24 7 2 3 -1.</_>
                <_>
                  24 8 2 1 3.</_></rects>
              <tilted>0</tilted></feature>
            <threshold>5.6154699996113777e-03</threshold>
            <left_val>-7.3651832342147827e-01</left_val>
            <right_val>4.5053490996360779e-01</right_val></_></_>
        <_>
          <!-- tree 4 -->
          <_>
            <!-- root node -->
            <feature>
              <rects>
                <_>
                  11 9 15 6 -1.</_>
                <_>
                  16 9 5 6 3.</_></rects>
              <tilted>0</tilted></feature>
            <threshold>2.1394449286162853e-03</threshold>
            <left_node>3</left_node>
            <right_node>1</right_node></_>
          <_>
            <!-- node 1 -->
            <feature>
              <rects>
                <_>
                  0 1 1 6 -1.</_>
                <_>
                  0 3 1 2 3.</_></rects>
              <tilted>0</tilted></feature>
            <threshold>3.3025189768522978e-03</threshold>
            <left_node>2</left_node>
            <right_val>-6.4242392778396606e-01</right_val></_>
          <_>
            <!-- node 2 -->
            <feature>
              <rects>
                <_>
                  22 1 3 1 -1.</_>
                <_>
                  23 1 1 1 3.</_></rects>
              <tilted>0</tilted></feature>
            <threshold>4.5640530879609287e-04</threshold>
            <left_val>7.1455508470535278e-01</left_val>
            <right_val>-4.1328048706054688e-01</right_val></_>
          <_>
            <!-- node 3 -->
            <feature>
              <rects>
                <_>
                  7 4 22 6 -1.</_>
                <_>
                  7 6 22 2 3.</_></rects>
              <tilted>0</tilted></feature>
            <threshold>1.2686540186405182e-01</threshold>
            <left_val>-6.7869842052459717e-01</left_val>
            <right_val>7.4085330963134766e-01</right_val></_></_></trees>
      <stage_threshold>-2.1559720039367676e+00</stage_threshold>
      <parent>2</parent>
      <next>-1</next></_>
    <_>
      <!-- stage 4 -->
      <trees>
        <_>
          <!-- tree 0 -->
          <_>
            <!-- root node -->
            <feature>
              <rects>
                <_>
                  20 3 12 8 -1.</_>
                <_>
                  20 3 6 4 2.</_>
                <_>
                  26 7 6 4 2.</_></rects>
              <tilted>0</tilted></feature>
            <threshold>-5.6441910564899445e-02</threshold>
            <left_node>2</left_node>
            <right_node>1</right_node></_>
          <_>
            <!-- node 1 -->
            <feature>
              <rects>
                <_>
                  17 12 3 3 -1.</_>
                <_>
                  17 13 3 1 3.</_></rects>
              <tilted>0</tilted></feature>
            <threshold>1.1191849596798420e-02</threshold>
            <left_node>3</left_node>
            <right_val>5.6135159730911255e-01</right_val></_>
          <_>
            <!-- node 2 -->
            <feature>
              <rects>
                <_>
                  4 0 3 14 -1.</_>
                <_>
                  4 7 3 7 2.</_></rects>
              <tilted>0</tilted></feature>
            <threshold>2.0603220909833908e-02</threshold>
            <left_val>9.1752862930297852e-01</left_val>
            <right_val>-9.4573348760604858e-01</right_val></_>
          <_>
            <!-- node 3 -->
            <feature>
              <rects>
                <_>
                  14 10 7 3 -1.</_>
                <_>
                  14 11 7 1 3.</_></rects>
              <tilted>0</tilted></feature>
            <threshold>2.1563170477747917e-02</threshold>
            <left_val>-6.9173651933670044e-01</left_val>
            <right_val>6.6595691442489624e-01</right_val></_></_>
        <_>
          <!-- tree 1 -->
          <_>
            <!-- root node -->
            <feature>
              <rects>
                <_>
                  29 1 6 14 -1.</_>
                <_>
                  29 1 3 7 2.</_>
                <_>
                  32 8 3 7 2.</_></rects>
              <tilted>0</tilted></feature>
            <threshold>1.2626609764993191e-02</threshold>
            <left_node>3</left_node>
            <right_node>1</right_node></_>
          <_>
            <!-- node 1 -->
            <feature>
              <rects>
                <_>
                  25 1 10 12 -1.</_>
                <_>
                  25 7 10 6 2.</_></rects>
              <tilted>0</tilted></feature>
            <threshold>1.8470090581104159e-03</threshold>
            <left_node>2</left_node>
            <right_val>-6.6579639911651611e-01</right_val></_>
          <_>
            <!-- node 2 -->
            <feature>
              <rects>
                <_>
                  27 14 2 1 -1.</_>
                <_>
                  28 14 1 1 2.</_></rects>
              <tilted>0</tilted></feature>
            <threshold>-3.4506339579820633e-04</threshold>
            <left_val>-5.1835608482360840e-01</left_val>
            <right_val>8.4160977602005005e-01</right_val></_>
          <_>
            <!-- node 3 -->
            <feature>
              <rects>
                <_>
                  13 1 10 9 -1.</_>
                <_>
                  13 4 10 3 3.</_></rects>
              <tilted>0</tilted></feature>
            <threshold>-1.0497590154409409e-01</threshold>
            <left_val>3.1899279356002808e-01</left_val>
            <right_val>-6.5143859386444092e-01</right_val></_></_>
        <_>
          <!-- tree 2 -->
          <_>
            <!-- root node -->
            <feature>
              <rects>
                <_>
                  1 1 6 14 -1.</_>
                <_>
                  1 1 3 7 2.</_>
                <_>
                  4 8 3 7 2.</_></rects>
              <tilted>0</tilted></feature>
            <threshold>-1.2251529842615128e-02</threshold>
            <left_node>1</left_node>
            <right_node>2</right_node></_>
          <_>
            <!-- node 1 -->
            <feature>
              <rects>
                <_>
                  0 14 24 1 -1.</_>
                <_>
                  12 14 12 1 2.</_></rects>
              <tilted>0</tilted></feature>
            <threshold>2.3395600728690624e-03</threshold>
            <left_node>3</left_node>
            <right_val>-3.1879448890686035e-01</right_val></_>
          <_>
            <!-- node 2 -->
            <feature>
              <rects>
                <_>
                  22 10 8 2 -1.</_>
                <_>
                  22 10 4 1 2.</_>
                <_>
                  26 11 4 1 2.</_></rects>
              <tilted>0</tilted></feature>
            <threshold>2.1250878926366568e-03</threshold>
            <left_val>-6.5451389551162720e-01</left_val>
            <right_val>3.5249748826026917e-01</right_val></_>
          <_>
            <!-- node 3 -->
            <feature>
              <rects>
                <_>
                  18 14 4 1 -1.</_>
                <_>
                  19 14 2 1 2.</_></rects>
              <tilted>0</tilted></feature>
            <threshold>4.4839081238023937e-04</threshold>
            <left_val>8.4511458873748779e-01</left_val>
            <right_val>-6.6355431079864502e-01</right_val></_></_>
        <_>
          <!-- tree 3 -->
          <_>
            <!-- root node -->
            <feature>
              <rects>
                <_>
                  20 1 4 1 -1.</_>
                <_>
                  21 1 2 1 2.</_></rects>
              <tilted>0</tilted></feature>
            <threshold>-4.1593131027184427e-04</threshold>
            <left_val>-6.9414067268371582e-01</left_val>
            <right_node>1</right_node></_>
          <_>
            <!-- node 1 -->
            <feature>
              <rects>
                <_>
                  0 2 1 9 -1.</_>
                <_>
                  0 5 1 3 3.</_></rects>
              <tilted>0</tilted></feature>
            <threshold>4.7539710067212582e-03</threshold>
            <left_node>2</left_node>
            <right_val>-5.6301987171173096e-01</right_val></_>
          <_>
            <!-- node 2 -->
            <feature>
              <rects>
                <_>
                  33 13 2 1 -1.</_>
                <_>
                  34 13 1 1 2.</_></rects>
              <tilted>0</tilted></feature>
            <threshold>1.4406779882847331e-05</threshold>
            <left_node>3</left_node>
            <right_val>7.2731167078018188e-01</right_val></_>
          <_>
            <!-- node 3 -->
            <feature>
              <rects>
                <_>
                  21 10 8 5 -1.</_>
                <_>
                  23 10 4 5 2.</_></rects>
              <tilted>0</tilted></feature>
            <threshold>-3.1006300559965894e-05</threshold>
            <left_val>4.7317939996719360e-01</left_val>
            <right_val>-5.4954862594604492e-01</right_val></_></_>
        <_>
          <!-- tree 4 -->
          <_>
            <!-- root node -->
            <feature>
              <rects>
                <_>
                  14 11 10 3 -1.</_>
                <_>
                  14 12 10 1 3.</_></rects>
              <tilted>0</tilted></feature>
            <threshold>-1.2479269877076149e-02</threshold>
            <left_node>3</left_node>
            <right_node>1</right_node></_>
          <_>
            <!-- node 1 -->
            <feature>
              <rects>
                <_>
                  19 11 2 3 -1.</_>
                <_>
                  19 12 2 1 3.</_></rects>
              <tilted>0</tilted></feature>
            <threshold>3.4151959698647261e-03</threshold>
            <left_node>2</left_node>
            <right_val>5.4063081741333008e-01</right_val></_>
          <_>
            <!-- node 2 -->
            <feature>
              <rects>
                <_>
                  11 4 20 8 -1.</_>
                <_>
                  11 6 20 4 2.</_></rects>
              <tilted>0</tilted></feature>
            <threshold>1.1075390130281448e-01</threshold>
            <left_val>-7.0062500238418579e-01</left_val>
            <right_val>2.8002721071243286e-01</right_val></_>
          <_>
            <!-- node 3 -->
            <feature>
              <rects>
                <_>
                  0 11 5 3 -1.</_>
                <_>
                  0 12 5 1 3.</_></rects>
              <tilted>0</tilted></feature>
            <threshold>-7.5072450563311577e-03</threshold>
            <left_val>-8.8004642724990845e-01</left_val>
            <right_val>7.8112548589706421e-01</right_val></_></_>
        <_>
          <!-- tree 5 -->
          <_>
            <!-- root node -->
            <feature>
              <rects>
                <_>
                  0 4 4 5 -1.</_>
                <_>
                  2 4 2 5 2.</_></rects>
              <tilted>0</tilted></feature>
            <threshold>-4.2029991745948792e-03</threshold>
            <left_node>2</left_node>
            <right_node>1</right_node></_>
          <_>
            <!-- node 1 -->
            <feature>
              <rects>
                <_>
                  29 0 6 1 -1.</_>
                <_>
                  32 0 3 1 2.</_></rects>
              <tilted>0</tilted></feature>
            <threshold>-2.1546969655901194e-03</threshold>
            <left_node>3</left_node>
            <right_val>-6.6191798448562622e-01</right_val></_>
          <_>
            <!-- node 2 -->
            <feature>
              <rects>
                <_>
                  5 4 6 4 -1.</_>
                <_>
                  5 4 3 4 2.</_></rects>
              <tilted>1</tilted></feature>
            <threshold>-1.7421640455722809e-02</threshold>
            <left_val>-7.5656688213348389e-01</left_val>
            <right_val>7.2478407621383667e-01</right_val></_>
          <_>
            <!-- node 3 -->
            <feature>
              <rects>
                <_>
                  23 0 7 4 -1.</_>
                <_>
                  23 0 7 2 2.</_></rects>
              <tilted>1</tilted></feature>
            <threshold>5.3357980214059353e-03</threshold>
            <left_val>-5.4391050338745117e-01</left_val>
            <right_val>7.7774208784103394e-01</right_val></_></_></trees>
      <stage_threshold>-1.6522680521011353e+00</stage_threshold>
      <parent>3</parent>
      <next>-1</next></_>
    <_>
      <!-- stage 5 -->
      <trees>
        <_>
          <!-- tree 0 -->
          <_>
            <!-- root node -->
            <feature>
              <rects>
                <_>
                  2 4 16 6 -1.</_>
                <_>
                  2 4 8 3 2.</_>
                <_>
                  10 7 8 3 2.</_></rects>
              <tilted>0</tilted></feature>
            <threshold>5.1313821226358414e-02</threshold>
            <left_node>1</left_node>
            <right_node>3</right_node></_>
          <_>
            <!-- node 1 -->
            <feature>
              <rects>
                <_>
                  16 6 9 9 -1.</_>
                <_>
                  16 9 9 3 3.</_></rects>
              <tilted>0</tilted></feature>
            <threshold>1.0581769794225693e-01</threshold>
            <left_node>2</left_node>
            <right_val>7.6207011938095093e-01</right_val></_>
          <_>
            <!-- node 2 -->
            <feature>
              <rects>
                <_>
                  9 13 18 2 -1.</_>
                <_>
                  9 14 18 1 2.</_></rects>
              <tilted>0</tilted></feature>
            <threshold>-2.5687770918011665e-02</threshold>
            <left_val>3.9030501246452332e-01</left_val>
            <right_val>-7.5099569559097290e-01</right_val></_>
          <_>
            <!-- node 3 -->
            <feature>
              <rects>
                <_>
                  19 14 3 1 -1.</_>
                <_>
                  20 14 1 1 3.</_></rects>
              <tilted>0</tilted></feature>
            <threshold>-9.1869430616497993e-04</threshold>
            <left_val>-9.4092637300491333e-01</left_val>
            <right_val>9.3116319179534912e-01</right_val></_></_>
        <_>
          <!-- tree 1 -->
          <_>
            <!-- root node -->
            <feature>
              <rects>
                <_>
                  8 2 5 8 -1.</_>
                <_>
                  6 4 5 4 2.</_></rects>
              <tilted>1</tilted></feature>
            <threshold>-3.5570800304412842e-02</threshold>
            <left_node>2</left_node>
            <right_node>1</right_node></_>
          <_>
            <!-- node 1 -->
            <feature>
              <rects>
                <_>
                  11 5 14 8 -1.</_>
                <_>
                  11 7 14 4 2.</_></rects>
              <tilted>0</tilted></feature>
            <threshold>8.8233463466167450e-02</threshold>
            <left_node>3</left_node>
            <right_val>6.6568577289581299e-01</right_val></_>
          <_>
            <!-- node 2 -->
            <feature>
              <rects>
                <_>
                  15 13 4 2 -1.</_>
                <_>
                  16 13 2 2 2.</_></rects>
              <tilted>0</tilted></feature>
            <threshold>-9.5177022740244865e-04</threshold>
            <left_val>-6.3532888889312744e-01</left_val>
            <right_val>8.7030738592147827e-01</right_val></_>
          <_>
            <!-- node 3 -->
            <feature>
              <rects>
                <_>
                  10 11 10 3 -1.</_>
                <_>
                  10 12 10 1 3.</_></rects>
              <tilted>0</tilted></feature>
            <threshold>2.1487450227141380e-02</threshold>
            <left_val>-6.6303128004074097e-01</left_val>
            <right_val>5.4173141717910767e-01</right_val></_></_>
        <_>
          <!-- tree 2 -->
          <_>
            <!-- root node -->
            <feature>
              <rects>
                <_>
                  17 14 3 1 -1.</_>
                <_>
                  18 14 1 1 3.</_></rects>
              <tilted>0</tilted></feature>
            <threshold>-2.9364830697886646e-04</threshold>
            <left_val>-8.7784248590469360e-01</left_val>
            <right_node>1</right_node></_>
          <_>
            <!-- node 1 -->
            <feature>
              <rects>
                <_>
                  17 14 3 1 -1.</_>
                <_>
                  18 14 1 1 3.</_></rects>
              <tilted>0</tilted></feature>
            <threshold>3.3710189745761454e-04</threshold>
            <left_node>2</left_node>
            <right_val>-7.6109129190444946e-01</right_val></_>
          <_>
            <!-- node 2 -->
            <feature>
              <rects>
                <_>
                  21 14 3 1 -1.</_>
                <_>
                  22 14 1 1 3.</_></rects>
              <tilted>0</tilted></feature>
            <threshold>-3.6551899393089116e-04</threshold>
            <left_val>-5.8378911018371582e-01</left_val>
            <right_node>3</right_node></_>
          <_>
            <!-- node 3 -->
            <feature>
              <rects>
                <_>
                  21 14 3 1 -1.</_>
                <_>
                  22 14 1 1 3.</_></rects>
              <tilted>0</tilted></feature>
            <threshold>3.4660659730434418e-04</threshold>
            <left_val>8.8619619607925415e-01</left_val>
            <right_val>-4.1063210368156433e-01</right_val></_></_>
        <_>
          <!-- tree 3 -->
          <_>
            <!-- root node -->
            <feature>
              <rects>
                <_>
                  30 4 4 10 -1.</_>
                <_>
                  30 4 2 5 2.</_>
                <_>
                  32 9 2 5 2.</_></rects>
              <tilted>0</tilted></feature>
            <threshold>7.0090238004922867e-03</threshold>
            <left_node>1</left_node>
            <right_node>3</right_node></_>
          <_>
            <!-- node 1 -->
            <feature>
              <rects>
                <_>
                  0 0 16 2 -1.</_>
                <_>
                  8 0 8 2 2.</_></rects>
              <tilted>0</tilted></feature>
            <threshold>2.6059079915285110e-02</threshold>
            <left_node>2</left_node>
            <right_val>5.7888001203536987e-01</right_val></_>
          <_>
            <!-- node 2 -->
            <feature>
              <rects>
                <_>
                  3 0 9 2 -1.</_>
                <_>
                  3 0 9 1 2.</_></rects>
              <tilted>1</tilted></feature>
            <threshold>1.5355139970779419e-02</threshold>
            <left_val>-6.6147512197494507e-01</left_val>
            <right_val>7.3748272657394409e-01</right_val></_>
          <_>
            <!-- node 3 -->
            <feature>
              <rects>
                <_>
                  3 9 1 2 -1.</_>
                <_>
                  3 9 1 1 2.</_></rects>
              <tilted>1</tilted></feature>
            <threshold>6.8002258194610476e-04</threshold>
            <left_val>8.1663972139358521e-01</left_val>
            <right_val>-2.4121759831905365e-01</right_val></_></_></trees>
      <stage_threshold>-1.5998640060424805e+00</stage_threshold>
      <parent>4</parent>
      <next>-1</next></_>
    <_>
      <!-- stage 6 -->
      <trees>
        <_>
          <!-- tree 0 -->
          <_>
            <!-- root node -->
            <feature>
              <rects>
                <_>
                  4 4 18 8 -1.</_>
                <_>
                  4 4 9 4 2.</_>
                <_>
                  13 8 9 4 2.</_></rects>
              <tilted>0</tilted></feature>
            <threshold>9.3668669462203979e-02</threshold>
            <left_node>1</left_node>
            <right_node>3</right_node></_>
          <_>
            <!-- node 1 -->
            <feature>
              <rects>
                <_>
                  11 8 16 6 -1.</_>
                <_>
                  11 10 16 2 3.</_></rects>
              <tilted>0</tilted></feature>
            <threshold>-8.5010856389999390e-02</threshold>
            <left_val>6.9442331790924072e-01</left_val>
            <right_node>2</right_node></_>
          <_>
            <!-- node 2 -->
            <feature>
              <rects>
                <_>
                  10 10 15 4 -1.</_>
                <_>
                  10 11 15 2 2.</_></rects>
              <tilted>0</tilted></feature>
            <threshold>-3.7162858992815018e-02</threshold>
            <left_val>5.7119727134704590e-01</left_val>
            <right_val>-7.4115842580795288e-01</right_val></_>
          <_>
            <!-- node 3 -->
            <feature>
              <rects>
                <_>
                  16 13 4 2 -1.</_>
                <_>
                  17 13 2 2 2.</_></rects>
              <tilted>0</tilted></feature>
            <threshold>7.1001198375597596e-04</threshold>
            <left_val>9.1245067119598389e-01</left_val>
            <right_val>-6.4507627487182617e-01</right_val></_></_>
        <_>
          <!-- tree 1 -->
          <_>
            <!-- root node -->
            <feature>
              <rects>
                <_>
                  14 10 10 3 -1.</_>
                <_>
                  14 11 10 1 3.</_></rects>
              <tilted>0</tilted></feature>
            <threshold>1.6971750184893608e-02</threshold>
            <left_node>1</left_node>
            <right_val>9.1060978174209595e-01</right_val></_>
          <_>
            <!-- node 1 -->
            <feature>
              <rects>
                <_>
                  18 9 6 4 -1.</_>
                <_>
                  18 11 6 2 2.</_></rects>
              <tilted>0</tilted></feature>
            <threshold>-3.6400198936462402e-02</threshold>
            <left_val>8.6581617593765259e-01</left_val>
            <right_node>2</right_node></_>
          <_>
            <!-- node 2 -->
            <feature>
              <rects>
                <_>
                  11 13 16 2 -1.</_>
                <_>
                  11 14 16 1 2.</_></rects>
              <tilted>0</tilted></feature>
            <threshold>-3.3572401851415634e-02</threshold>
            <left_val>7.9648262262344360e-01</left_val>
            <right_node>3</right_node></_>
          <_>
            <!-- node 3 -->
            <feature>
              <rects>
                <_>
                  17 5 12 4 -1.</_>
                <_>
                  17 6 12 2 2.</_></rects>
              <tilted>0</tilted></feature>
            <threshold>2.4434160441160202e-02</threshold>
            <left_val>-6.2927681207656860e-01</left_val>
            <right_val>5.9940981864929199e-01</right_val></_></_>
        <_>
          <!-- tree 2 -->
          <_>
            <!-- root node -->
            <feature>
              <rects>
                <_>
                  19 14 4 1 -1.</_>
                <_>
                  20 14 2 1 2.</_></rects>
              <tilted>0</tilted></feature>
            <threshold>-5.9329072246327996e-04</threshold>
            <left_val>-8.8412010669708252e-01</left_val>
            <right_node>1</right_node></_>
          <_>
            <!-- node 1 -->
            <feature>
              <rects>
                <_>
                  18 14 6 1 -1.</_>
                <_>
                  20 14 2 1 3.</_></rects>
              <tilted>0</tilted></feature>
            <threshold>1.2040110304951668e-03</threshold>
            <left_node>2</left_node>
            <right_val>-7.6948320865631104e-01</right_val></_>
          <_>
            <!-- node 2 -->
            <feature>
              <rects>
                <_>
                  12 7 8 8 -1.</_>
                <_>
                  16 7 4 8 2.</_></rects>
              <tilted>0</tilted></feature>
            <threshold>-1.6616830602288246e-02</threshold>
            <left_val>-7.3956787586212158e-01</left_val>
            <right_node>3</right_node></_>
          <_>
            <!-- node 3 -->
            <feature>
              <rects>
                <_>
                  1 14 14 1 -1.</_>
                <_>
                  8 14 7 1 2.</_></rects>
              <tilted>0</tilted></feature>
            <threshold>-2.0497229706961662e-04</threshold>
            <left_val>8.4234148263931274e-01</left_val>
            <right_val>-6.4247868955135345e-02</right_val></_></_>
        <_>
          <!-- tree 3 -->
          <_>
            <!-- root node -->
            <feature>
              <rects>
                <_>
                  18 4 1 3 -1.</_>
                <_>
                  17 5 1 1 3.</_></rects>
              <tilted>1</tilted></feature>
            <threshold>-2.9005149845033884e-03</threshold>
            <left_val>7.1807318925857544e-01</left_val>
            <right_node>1</right_node></_>
          <_>
            <!-- node 1 -->
            <feature>
              <rects>
                <_>
                  30 14 2 1 -1.</_>
                <_>
                  31 14 1 1 2.</_></rects>
              <tilted>0</tilted></feature>
            <threshold>1.3749950085184537e-05</threshold>
            <left_val>-5.9772288799285889e-01</left_val>
            <right_node>2</right_node></_>
          <_>
            <!-- node 2 -->
            <feature>
              <rects>
                <_>
                  26 14 3 1 -1.</_>
                <_>
                  27 14 1 1 3.</_></rects>
              <tilted>0</tilted></feature>
            <threshold>2.8626300627365708e-04</threshold>
            <left_node>3</left_node>
            <right_val>-7.2008019685745239e-01</right_val></_>
          <_>
            <!-- node 3 -->
            <feature>
              <rects>
                <_>
                  0 3 2 8 -1.</_>
                <_>
                  0 5 2 4 2.</_></rects>
              <tilted>0</tilted></feature>
            <threshold>-6.4119240269064903e-03</threshold>
            <left_val>-4.8864060640335083e-01</left_val>
            <right_val>7.2506642341613770e-01</right_val></_></_>
        <_>
          <!-- tree 4 -->
          <_>
            <!-- root node -->
            <feature>
              <rects>
                <_>
                  11 9 17 3 -1.</_>
                <_>
                  11 10 17 1 3.</_></rects>
              <tilted>0</tilted></feature>
            <threshold>-8.1915818154811859e-03</threshold>
            <left_node>3</left_node>
            <right_node>1</right_node></_>
          <_>
            <!-- node 1 -->
            <feature>
              <rects>
                <_>
                  16 9 11 3 -1.</_>
                <_>
                  16 10 11 1 3.</_></rects>
              <tilted>0</tilted></feature>
            <threshold>1.0686960071325302e-02</threshold>
            <left_val>-5.2724057435989380e-01</left_val>
            <right_node>2</right_node></_>
          <_>
            <!-- node 2 -->
            <feature>
              <rects>
                <_>
                  14 13 6 2 -1.</_>
                <_>
                  16 13 2 2 3.</_></rects>
              <tilted>0</tilted></feature>
            <threshold>3.6679098848253489e-03</threshold>
            <left_val>8.1101548671722412e-01</left_val>
            <right_val>-5.9625577926635742e-01</right_val></_>
          <_>
            <!-- node 3 -->
            <feature>
              <rects>
                <_>
                  16 13 8 2 -1.</_>
                <_>
                  18 13 4 2 2.</_></rects>
              <tilted>0</tilted></feature>
            <threshold>-2.9185030143707991e-03</threshold>
            <left_val>-7.1443599462509155e-01</left_val>
            <right_val>7.5181591510772705e-01</right_val></_></_></trees>
      <stage_threshold>-1.9858249425888062e+00</stage_threshold>
      <parent>5</parent>
      <next>-1</next></_>
    <_>
      <!-- stage 7 -->
      <trees>
        <_>
          <!-- tree 0 -->
          <_>
            <!-- root node -->
            <feature>
              <rects>
                <_>
                  12 1 13 9 -1.</_>
                <_>
                  12 4 13 3 3.</_></rects>
              <tilted>0</tilted></feature>
            <threshold>-1.0533230006694794e-01</threshold>
            <left_node>2</left_node>
            <right_node>1</right_node></_>
          <_>
            <!-- node 1 -->
            <feature>
              <rects>
                <_>
                  7 9 21 3 -1.</_>
                <_>
                  14 10 7 1 9.</_></rects>
              <tilted>0</tilted></feature>
            <threshold>1.5854500234127045e-01</threshold>
            <left_node>3</left_node>
            <right_val>6.5475487709045410e-01</right_val></_>
          <_>
            <!-- node 2 -->
            <feature>
              <rects>
                <_>
                  26 1 6 14 -1.</_>
                <_>
                  26 8 6 7 2.</_></rects>
              <tilted>0</tilted></feature>
            <threshold>-4.0339510887861252e-02</threshold>
            <left_val>9.1097682714462280e-01</left_val>
            <right_val>-4.6341198682785034e-01</right_val></_>
          <_>
            <!-- node 3 -->
            <feature>
              <rects>
                <_>
                  11 5 15 3 -1.</_>
                <_>
                  11 6 15 1 3.</_></rects>
              <tilted>0</tilted></feature>
            <threshold>2.6531180366873741e-02</threshold>
            <left_val>-6.7946827411651611e-01</left_val>
            <right_val>6.1848372220993042e-01</right_val></_></_>
        <_>
          <!-- tree 1 -->
          <_>
            <!-- root node -->
            <feature>
              <rects>
                <_>
                  4 1 7 14 -1.</_>
                <_>
                  4 8 7 7 2.</_></rects>
              <tilted>0</tilted></feature>
            <threshold>-5.8674979954957962e-02</threshold>
            <left_node>1</left_node>
            <right_node>3</right_node></_>
          <_>
            <!-- node 1 -->
            <feature>
              <rects>
                <_>
                  32 13 2 2 -1.</_>
                <_>
                  33 13 1 2 2.</_></rects>
              <tilted>0</tilted></feature>
            <threshold>1.5288089343812317e-05</threshold>
            <left_val>-3.1777879595756531e-01</left_val>
            <right_node>2</right_node></_>
          <_>
            <!-- node 2 -->
            <feature>
              <rects>
                <_>
                  26 14 2 1 -1.</_>
                <_>
                  27 14 1 1 2.</_></rects>
              <tilted>0</tilted></feature>
            <threshold>-3.5254791146144271e-04</threshold>
            <left_val>-4.6760660409927368e-01</left_val>
            <right_val>8.2847839593887329e-01</right_val></_>
          <_>
            <!-- node 3 -->
            <feature>
              <rects>
                <_>
                  12 9 14 4 -1.</_>
                <_>
                  12 11 14 2 2.</_></rects>
              <tilted>0</tilted></feature>
            <threshold>-7.2028532624244690e-02</threshold>
            <left_val>7.3452860116958618e-01</left_val>
            <right_val>-7.4067610502243042e-01</right_val></_></_>
        <_>
          <!-- tree 2 -->
          <_>
            <!-- root node -->
            <feature>
              <rects>
                <_>
                  10 8 8 5 -1.</_>
                <_>
                  14 8 4 5 2.</_></rects>
              <tilted>0</tilted></feature>
            <threshold>2.5906150694936514e-03</threshold>
            <left_node>2</left_node>
            <right_node>1</right_node></_>
          <_>
            <!-- node 1 -->
            <feature>
              <rects>
                <_>
                  11 14 3 1 -1.</_>
                <_>
                  12 14 1 1 3.</_></rects>
              <tilted>0</tilted></feature>
            <threshold>2.8155409381724894e-04</threshold>
            <left_node>3</left_node>
            <right_val>-5.4076981544494629e-01</right_val></_>
          <_>
            <!-- node 2 -->
            <feature>
              <rects>
                <_>
                  13 13 12 2 -1.</_>
                <_>
                  13 14 12 1 2.</_></rects>
              <tilted>0</tilted></feature>
            <threshold>-1.3119019567966461e-02</threshold>
            <left_val>4.5220598578453064e-01</left_val>
            <right_val>-7.4654817581176758e-01</right_val></_>
          <_>
            <!-- node 3 -->
            <feature>
              <rects>
                <_>
                  20 14 3 1 -1.</_>
                <_>
                  21 14 1 1 3.</_></rects>
              <tilted>0</tilted></feature>
            <threshold>2.5737431133165956e-04</threshold>
            <left_val>7.2716861963272095e-01</left_val>
            <right_val>-4.2007470130920410e-01</right_val></_></_>
        <_>
          <!-- tree 3 -->
          <_>
            <!-- root node -->
            <feature>
              <rects>
                <_>
                  14 14 4 1 -1.</_>
                <_>
                  15 14 2 1 2.</_></rects>
              <tilted>0</tilted></feature>
            <threshold>3.9062029100023210e-04</threshold>
            <left_node>1</left_node>
            <right_val>-7.1619522571563721e-01</right_val></_>
          <_>
            <!-- node 1 -->
            <feature>
              <rects>
                <_>
                  23 0 2 1 -1.</_>
                <_>
                  24 0 1 1 2.</_></rects>
              <tilted>0</tilted></feature>
            <threshold>4.1600220720283687e-04</threshold>
            <left_node>2</left_node>
            <right_val>-7.2787272930145264e-01</right_val></_>
          <_>
            <!-- node 2 -->
            <feature>
              <rects>
                <_>
                  16 14 3 1 -1.</_>
                <_>
                  17 14 1 1 3.</_></rects>
              <tilted>0</tilted></feature>
            <threshold>3.2802179339341819e-04</threshold>
            <left_node>3</left_node>
            <right_val>-5.4861330986022949e-01</right_val></_>
          <_>
            <!-- node 3 -->
            <feature>
              <rects>
                <_>
                  15 1 3 1 -1.</_>
                <_>
                  16 1 1 1 3.</_></rects>
              <tilted>0</tilted></feature>
            <threshold>3.0807530856691301e-04</threshold>
            <left_val>7.1423900127410889e-01</left_val>
            <right_val>-2.6056170463562012e-01</right_val></_></_>
        <_>
          <!-- tree 4 -->
          <_>
            <!-- root node -->
            <feature>
              <rects>
                <_>
                  31 10 4 1 -1.</_>
                <_>
                  33 10 2 1 2.</_></rects>
              <tilted>0</tilted></feature>
            <threshold>2.3278810549527407e-03</threshold>
            <left_node>1</left_node>
            <right_node>2</right_node></_>
          <_>
            <!-- node 1 -->
            <feature>
              <rects>
                <_>
                  19 12 4 3 -1.</_>
                <_>
                  19 13 4 1 3.</_></rects>
              <tilted>0</tilted></feature>
            <threshold>1.2446450069546700e-02</threshold>
            <left_node>3</left_node>
            <right_val>5.1555001735687256e-01</right_val></_>
          <_>
            <!-- node 2 -->
            <feature>
              <rects>
                <_>
                  1 10 6 5 -1.</_>
                <_>
                  4 10 3 5 2.</_></rects>
              <tilted>0</tilted></feature>
            <threshold>-3.1077759340405464e-03</threshold>
            <left_val>7.5736218690872192e-01</left_val>
            <right_val>-5.0551170110702515e-01</right_val></_>
          <_>
            <!-- node 3 -->
            <feature>
              <rects>
                <_>
                  20 1 9 2 -1.</_>
                <_>
                  23 4 3 2 3.</_></rects>
              <tilted>1</tilted></feature>
            <threshold>-4.9637001007795334e-02</threshold>
            <left_val>8.4206831455230713e-01</left_val>
            <right_val>-5.6022071838378906e-01</right_val></_></_>
        <_>
          <!-- tree 5 -->
          <_>
            <!-- root node -->
            <feature>
              <rects>
                <_>
                  10 5 4 6 -1.</_>
                <_>
                  10 5 2 6 2.</_></rects>
              <tilted>1</tilted></feature>
            <threshold>1.9255429506301880e-03</threshold>
            <left_node>2</left_node>
            <right_node>1</right_node></_>
          <_>
            <!-- node 1 -->
            <feature>
              <rects>
                <_>
                  1 9 2 4 -1.</_>
                <_>
                  1 11 2 2 2.</_></rects>
              <tilted>0</tilted></feature>
            <threshold>-2.7955139521509409e-03</threshold>
            <left_val>-4.1380208730697632e-01</left_val>
            <right_node>3</right_node></_>
          <_>
            <!-- node 2 -->
            <feature>
              <rects>
                <_>
                  9 3 16 12 -1.</_>
                <_>
                  9 7 16 4 3.</_></rects>
              <tilted>0</tilted></feature>
            <threshold>2.1177320182323456e-01</threshold>
            <left_val>-6.5099501609802246e-01</left_val>
            <right_val>5.8361792564392090e-01</right_val></_>
          <_>
            <!-- node 3 -->
            <feature>
              <rects>
                <_>
                  18 0 3 1 -1.</_>
                <_>
                  19 0 1 1 3.</_></rects>
              <tilted>0</tilted></feature>
            <threshold>2.0448419672902673e-04</threshold>
            <left_val>6.9051331281661987e-01</left_val>
            <right_val>-2.3418849706649780e-01</right_val></_></_></trees>
      <stage_threshold>-2.0984680652618408e+00</stage_threshold>
      <parent>6</parent>
      <next>-1</next></_>
    <_>
      <!-- stage 8 -->
      <trees>
        <_>
          <!-- tree 0 -->
          <_>
            <!-- root node -->
            <feature>
              <rects>
                <_>
                  12 1 15 9 -1.</_>
                <_>
                  12 4 15 3 3.</_></rects>
              <tilted>0</tilted></feature>
            <threshold>-1.3323679566383362e-01</threshold>
            <left_node>3</left_node>
            <right_node>1</right_node></_>
          <_>
            <!-- node 1 -->
            <feature>
              <rects>
                <_>
                  30 2 3 8 -1.</_>
                <_>
                  30 6 3 4 2.</_></rects>
              <tilted>0</tilted></feature>
            <threshold>-2.2792819887399673e-02</threshold>
            <left_node>2</left_node>
            <right_val>-6.7540907859802246e-01</right_val></_>
          <_>
            <!-- node 2 -->
            <feature>
              <rects>
                <_>
                  20 9 15 3 -1.</_>
                <_>
                  25 10 5 1 9.</_></rects>
              <tilted>0</tilted></feature>
            <threshold>-2.4712229147553444e-02</threshold>
            <left_val>7.9658502340316772e-01</left_val>
            <right_val>-4.5725539326667786e-01</right_val></_>
          <_>
            <!-- node 3 -->
            <feature>
              <rects>
                <_>
                  8 1 3 14 -1.</_>
                <_>
                  8 8 3 7 2.</_></rects>
              <tilted>0</tilted></feature>
            <threshold>-1.0377160273492336e-02</threshold>
            <left_val>9.0423458814620972e-01</left_val>
            <right_val>-5.6367677450180054e-01</right_val></_></_>
        <_>
          <!-- tree 1 -->
          <_>
            <!-- root node -->
            <feature>
              <rects>
                <_>
                  25 3 5 12 -1.</_>
                <_>
                  25 9 5 6 2.</_></rects>
              <tilted>0</tilted></feature>
            <threshold>-2.9065079987049103e-02</threshold>
            <left_node>1</left_node>
            <right_val>-5.8024972677230835e-01</right_val></_>
          <_>
            <!-- node 1 -->
            <feature>
              <rects>
                <_>
                  14 13 4 2 -1.</_>
                <_>
                  15 13 2 2 2.</_></rects>
              <tilted>0</tilted></feature>
            <threshold>-6.8846531212329865e-04</threshold>
            <left_val>-6.8699771165847778e-01</left_val>
            <right_node>2</right_node></_>
          <_>
            <!-- node 2 -->
            <feature>
              <rects>
                <_>
                  15 12 9 3 -1.</_>
                <_>
                  18 12 3 3 3.</_></rects>
              <tilted>0</tilted></feature>
            <threshold>-5.4441289976239204e-03</threshold>
            <left_val>-7.4930578470230103e-01</left_val>
            <right_node>3</right_node></_>
          <_>
            <!-- node 3 -->
            <feature>
              <rects>
                <_>
                  3 1 28 14 -1.</_>
                <_>
                  3 1 14 7 2.</_>
                <_>
                  17 8 14 7 2.</_></rects>
              <tilted>0</tilted></feature>
            <threshold>-1.6431769728660583e-01</threshold>
            <left_val>-6.9999849796295166e-01</left_val>
            <right_val>8.2827740907669067e-01</right_val></_></_>
        <_>
          <!-- tree 2 -->
          <_>
            <!-- root node -->
            <feature>
              <rects>
                <_>
                  0 6 16 6 -1.</_>
                <_>
                  4 6 8 6 2.</_></rects>
              <tilted>0</tilted></feature>
            <threshold>-5.8527521789073944e-02</threshold>
            <left_val>7.6549261808395386e-01</left_val>
            <right_node>1</right_node></_>
          <_>
            <!-- node 1 -->
            <feature>
              <rects>
                <_>
                  11 12 14 3 -1.</_>
                <_>
                  11 13 14 1 3.</_></rects>
              <tilted>0</tilted></feature>
            <threshold>1.5356959775090218e-02</threshold>
            <left_node>2</left_node>
            <right_val>5.3697121143341064e-01</right_val></_>
          <_>
            <!-- node 2 -->
            <feature>
              <rects>
                <_>
                  11 1 15 6 -1.</_>
                <_>
                  11 3 15 2 3.</_></rects>
              <tilted>0</tilted></feature>
            <threshold>-9.8660647869110107e-02</threshold>
            <left_val>1.</left_val>
            <right_node>3</right_node></_>
          <_>
            <!-- node 3 -->
            <feature>
              <rects>
                <_>
                  14 8 12 6 -1.</_>
                <_>
                  14 10 12 2 3.</_></rects>
              <tilted>0</tilted></feature>
            <threshold>1.2133400142192841e-01</threshold>
            <left_val>-7.2541487216949463e-01</left_val>
            <right_val>8.1973791122436523e-01</right_val></_></_>
        <_>
          <!-- tree 3 -->
          <_>
            <!-- root node -->
            <feature>
              <rects>
                <_>
                  14 14 9 1 -1.</_>
                <_>
                  17 14 3 1 3.</_></rects>
              <tilted>0</tilted></feature>
            <threshold>2.7779610827565193e-03</threshold>
            <left_node>1</left_node>
            <right_val>-7.6740962266921997e-01</right_val></_>
          <_>
            <!-- node 1 -->
            <feature>
              <rects>
                <_>
                  29 14 2 1 -1.</_>
                <_>
                  30 14 1 1 2.</_></rects>
              <tilted>0</tilted></feature>
            <threshold>1.3507189578376710e-05</threshold>
            <left_node>3</left_node>
            <right_node>2</right_node></_>
          <_>
            <!-- node 2 -->
            <feature>
              <rects>
                <_>
                  27 13 4 2 -1.</_>
                <_>
                  28 13 2 2 2.</_></rects>
              <tilted>0</tilted></feature>
            <threshold>-1.8674769671633840e-03</threshold>
            <left_val>-4.4520959258079529e-01</left_val>
            <right_val>8.0622720718383789e-01</right_val></_>
          <_>
            <!-- node 3 -->
            <feature>
              <rects>
                <_>
                  14 9 2 3 -1.</_>
                <_>
                  13 10 2 1 3.</_></rects>
              <tilted>1</tilted></feature>
            <threshold>-5.0059817731380463e-03</threshold>
            <left_val>4.9765199422836304e-01</left_val>
            <right_val>-4.8828709125518799e-01</right_val></_></_>
        <_>
          <!-- tree 4 -->
          <_>
            <!-- root node -->
            <feature>
              <rects>
                <_>
                  3 14 2 1 -1.</_>
                <_>
                  4 14 1 1 2.</_></rects>
              <tilted>0</tilted></feature>
            <threshold>-1.5782119589857757e-05</threshold>
            <left_node>1</left_node>
            <right_node>3</right_node></_>
          <_>
            <!-- node 1 -->
            <feature>
              <rects>
                <_>
                  15 0 8 2 -1.</_>
                <_>
                  17 0 4 2 2.</_></rects>
              <tilted>0</tilted></feature>
            <threshold>-4.3987501412630081e-03</threshold>
            <left_val>-7.2954469919204712e-01</left_val>
            <right_node>2</right_node></_>
          <_>
            <!-- node 2 -->
            <feature>
              <rects>
                <_>
                  12 0 9 1 -1.</_>
                <_>
                  15 0 3 1 3.</_></rects>
              <tilted>0</tilted></feature>
            <threshold>-4.0382738225162029e-03</threshold>
            <left_val>-7.1908271312713623e-01</left_val>
            <right_val>7.3861718177795410e-01</right_val></_>
          <_>
            <!-- node 3 -->
            <feature>
              <rects>
                <_>
                  0 0 6 13 -1.</_>
                <_>
                  3 0 3 13 2.</_></rects>
              <tilted>0</tilted></feature>
            <threshold>5.9357751160860062e-02</threshold>
            <left_val>-6.0326081514358521e-01</left_val>
            <right_val>9.0154457092285156e-01</right_val></_></_></trees>
      <stage_threshold>-1.8848550319671631e+00</stage_threshold>
      <parent>7</parent>
      <next>-1</next></_>
    <_>
      <!-- stage 9 -->
      <trees>
        <_>
          <!-- tree 0 -->
          <_>
            <!-- root node -->
            <feature>
              <rects>
                <_>
                  16 0 5 6 -1.</_>
                <_>
                  14 2 5 2 3.</_></rects>
              <tilted>1</tilted></feature>
            <threshold>-2.2190630435943604e-02</threshold>
            <left_node>1</left_node>
            <right_node>2</right_node></_>
          <_>
            <!-- node 1 -->
            <feature>
              <rects>
                <_>
                  23 6 6 3 -1.</_>
                <_>
                  23 6 3 3 2.</_></rects>
              <tilted>1</tilted></feature>
            <threshold>1.3403239659965038e-02</threshold>
            <left_val>-4.9479308724403381e-01</left_val>
            <right_val>8.2422351837158203e-01</right_val></_>
          <_>
            <!-- node 2 -->
            <feature>
              <rects>
                <_>
                  33 6 2 9 -1.</_>
                <_>
                  34 6 1 9 2.</_></rects>
              <tilted>0</tilted></feature>
            <threshold>1.8381240079179406e-03</threshold>
            <left_val>-7.0753890275955200e-01</left_val>
            <right_node>3</right_node></_>
          <_>
            <!-- node 3 -->
            <feature>
              <rects>
                <_>
                  0 7 6 7 -1.</_>
                <_>
                  3 7 3 7 2.</_></rects>
              <tilted>0</tilted></feature>
            <threshold>-2.0996689796447754e-02</threshold>
            <left_val>5.6055378913879395e-01</left_val>
            <right_val>-5.4555112123489380e-01</right_val></_></_>
        <_>
          <!-- tree 1 -->
          <_>
            <!-- root node -->
            <feature>
              <rects>
                <_>
                  2 1 12 14 -1.</_>
                <_>
                  2 8 12 7 2.</_></rects>
              <tilted>0</tilted></feature>
            <threshold>-5.7113919407129288e-02</threshold>
            <left_node>1</left_node>
            <right_val>-7.0393168926239014e-01</right_val></_>
          <_>
            <!-- node 1 -->
            <feature>
              <rects>
                <_>
                  16 13 3 2 -1.</_>
                <_>
                  17 13 1 2 3.</_></rects>
              <tilted>0</tilted></feature>
            <threshold>-5.9937499463558197e-04</threshold>
            <left_val>-6.8744158744812012e-01</left_val>
            <right_node>2</right_node></_>
          <_>
            <!-- node 2 -->
            <feature>
              <rects>
                <_>
                  0 1 1 14 -1.</_>
                <_>
                  0 8 1 7 2.</_></rects>
              <tilted>0</tilted></feature>
            <threshold>-1.0358559899032116e-02</threshold>
            <left_val>-2.1484160423278809e-01</left_val>
            <right_node>3</right_node></_>
          <_>
            <!-- node 3 -->
            <feature>
              <rects>
                <_>
                  17 14 4 1 -1.</_>
                <_>
                  18 14 2 1 2.</_></rects>
              <tilted>0</tilted></feature>
            <threshold>-3.3968739444389939e-04</threshold>
            <left_val>-5.0920528173446655e-01</left_val>
            <right_val>8.4086221456527710e-01</right_val></_></_>
        <_>
          <!-- tree 2 -->
          <_>
            <!-- root node -->
            <feature>
              <rects>
                <_>
                  20 10 12 3 -1.</_>
                <_>
                  24 11 4 1 9.</_></rects>
              <tilted>0</tilted></feature>
            <threshold>-1.8619820475578308e-02</threshold>
            <left_node>1</left_node>
            <right_node>2</right_node></_>
          <_>
            <!-- node 1 -->
            <feature>
              <rects>
                <_>
                  16 10 6 4 -1.</_>
                <_>
                  19 10 3 4 2.</_></rects>
              <tilted>0</tilted></feature>
            <threshold>1.1293630115687847e-02</threshold>
            <left_node>3</left_node>
            <right_val>-7.5469911098480225e-01</right_val></_>
          <_>
            <!-- node 2 -->
            <feature>
              <rects>
                <_>
                  14 8 10 3 -1.</_>
                <_>
                  14 9 10 1 3.</_></rects>
              <tilted>0</tilted></feature>
            <threshold>1.6504909843206406e-02</threshold>
            <left_val>-4.6045440435409546e-01</left_val>
            <right_val>5.7840597629547119e-01</right_val></_>
          <_>
            <!-- node 3 -->
            <feature>
              <rects>
                <_>
                  7 5 22 10 -1.</_>
                <_>
                  7 5 11 5 2.</_>
                <_>
                  18 10 11 5 2.</_></rects>
              <tilted>0</tilted></feature>
            <threshold>-8.6318120360374451e-02</threshold>
            <left_val>-5.8650302886962891e-01</left_val>
            <right_val>8.4376627206802368e-01</right_val></_></_>
        <_>
          <!-- tree 3 -->
          <_>
            <!-- root node -->
            <feature>
              <rects>
                <_>
                  31 14 2 1 -1.</_>
                <_>
                  32 14 1 1 2.</_></rects>
              <tilted>0</tilted></feature>
            <threshold>1.4252929759095423e-05</threshold>
            <left_node>3</left_node>
            <right_node>1</right_node></_>
          <_>
            <!-- node 1 -->
            <feature>
              <rects>
                <_>
                  33 13 2 2 -1.</_>
                <_>
                  34 13 1 2 2.</_></rects>
              <tilted>0</tilted></feature>
            <threshold>-1.4283609925769269e-04</threshold>
            <left_val>-4.5640110969543457e-01</left_val>
            <right_node>2</right_node></_>
          <_>
            <!-- node 2 -->
            <feature>
              <rects>
                <_>
                  13 14 12 1 -1.</_>
                <_>
                  17 14 4 1 3.</_></rects>
              <tilted>0</tilted></feature>
            <threshold>-6.6893179900944233e-03</threshold>
            <left_val>-7.3657619953155518e-01</left_val>
            <right_val>6.9756317138671875e-01</right_val></_>
          <_>
            <!-- node 3 -->
            <feature>
              <rects>
                <_>
                  11 4 16 3 -1.</_>
                <_>
                  11 5 16 1 3.</_></rects>
              <tilted>0</tilted></feature>
            <threshold>-2.3547150194644928e-02</threshold>
            <left_val>5.4239827394485474e-01</left_val>
            <right_val>-6.1469417810440063e-01</right_val></_></_>
        <_>
          <!-- tree 4 -->
          <_>
            <!-- root node -->
            <feature>
              <rects>
                <_>
                  14 10 6 4 -1.</_>
                <_>
                  17 10 3 4 2.</_></rects>
              <tilted>0</tilted></feature>
            <threshold>-5.6441491469740868e-03</threshold>
            <left_val>-8.0135869979858398e-01</left_val>
            <right_node>1</right_node></_>
          <_>
            <!-- node 1 -->
            <feature>
              <rects>
                <_>
                  21 1 3 1 -1.</_>
                <_>
                  22 1 1 1 3.</_></rects>
              <tilted>0</tilted></feature>
            <threshold>5.3561001550406218e-04</threshold>
            <left_node>2</left_node>
            <right_val>-6.5354311466217041e-01</right_val></_>
          <_>
            <!-- node 2 -->
            <feature>
              <rects>
                <_>
                  0 2 34 12 -1.</_>
                <_>
                  0 2 17 6 2.</_>
                <_>
                  17 8 17 6 2.</_></rects>
              <tilted>0</tilted></feature>
            <threshold>1.7418029904365540e-01</threshold>
            <left_node>3</left_node>
            <right_val>-7.6819920539855957e-01</right_val></_>
          <_>
            <!-- node 3 -->
            <feature>
              <rects>
                <_>
                  2 11 1 3 -1.</_>
                <_>
                  2 12 1 1 3.</_></rects>
              <tilted>0</tilted></feature>
            <threshold>1.7431329470127821e-03</threshold>
            <left_val>6.6612529754638672e-01</left_val>
            <right_val>-5.4940909147262573e-01</right_val></_></_></trees>
      <stage_threshold>-1.8114149570465088e+00</stage_threshold>
      <parent>8</parent>
      <next>-1</next></_>
    <_>
      <!-- stage 10 -->
      <trees>
        <_>
          <!-- tree 0 -->
          <_>
            <!-- root node -->
            <feature>
              <rects>
                <_>
                  15 5 18 6 -1.</_>
                <_>
                  15 5 9 3 2.</_>
                <_>
                  24 8 9 3 2.</_></rects>
              <tilted>0</tilted></feature>
            <threshold>-6.0271650552749634e-02</threshold>
            <left_node>1</left_node>
            <right_node>2</right_node></_>
          <_>
            <!-- node 1 -->
            <feature>
              <rects>
                <_>
                  12 6 4 4 -1.</_>
                <_>
                  12 6 4 2 2.</_></rects>
              <tilted>1</tilted></feature>
            <threshold>1.0310250334441662e-02</threshold>
            <left_val>-3.5658660531044006e-01</left_val>
            <right_val>8.9888077974319458e-01</right_val></_>
          <_>
            <!-- node 2 -->
            <feature>
              <rects>
                <_>
                  14 9 9 4 -1.</_>
                <_>
                  14 10 9 2 2.</_></rects>
              <tilted>0</tilted></feature>
            <threshold>-3.9522700011730194e-02</threshold>
            <left_val>9.0310758352279663e-01</left_val>
            <right_node>3</right_node></_>
          <_>
            <!-- node 3 -->
            <feature>
              <rects>
                <_>
                  11 1 15 6 -1.</_>
                <_>
                  11 3 15 2 3.</_></rects>
              <tilted>0</tilted></feature>
            <threshold>-1.1811540275812149e-01</threshold>
            <left_val>8.6962437629699707e-01</left_val>
            <right_val>-6.6783642768859863e-01</right_val></_></_>
        <_>
          <!-- tree 1 -->
          <_>
            <!-- root node -->
            <feature>
              <rects>
                <_>
                  2 13 2 1 -1.</_>
                <_>
                  3 13 1 1 2.</_></rects>
              <tilted>0</tilted></feature>
            <threshold>-1.4406779882847331e-05</threshold>
            <left_node>1</left_node>
            <right_val>-6.0046178102493286e-01</right_val></_>
          <_>
            <!-- node 1 -->
            <feature>
              <rects>
                <_>
                  31 2 4 10 -1.</_>
                <_>
                  31 2 2 5 2.</_>
                <_>
                  33 7 2 5 2.</_></rects>
              <tilted>0</tilted></feature>
            <threshold>6.6499970853328705e-03</threshold>
            <left_node>2</left_node>
            <right_node>3</right_node></_>
          <_>
            <!-- node 2 -->
            <feature>
              <rects>
                <_>
                  15 12 2 3 -1.</_>
                <_>
                  15 13 2 1 3.</_></rects>
              <tilted>0</tilted></feature>
            <threshold>1.8347239820286632e-03</threshold>
            <left_val>-3.8878628611564636e-01</left_val>
            <right_val>7.6989841461181641e-01</right_val></_>
          <_>
            <!-- node 3 -->
            <feature>
              <rects>
                <_>
                  4 12 3 2 -1.</_>
                <_>
                  5 12 1 2 3.</_></rects>
              <tilted>0</tilted></feature>
            <threshold>1.6238309908658266e-03</threshold>
            <left_val>9.2977511882781982e-01</left_val>
            <right_val>-3.9116528630256653e-01</right_val></_></_>
        <_>
          <!-- tree 2 -->
          <_>
            <!-- root node -->
            <feature>
              <rects>
                <_>
                  0 0 6 12 -1.</_>
                <_>
                  0 0 3 6 2.</_>
                <_>
                  3 6 3 6 2.</_></rects>
              <tilted>0</tilted></feature>
            <threshold>-1.8110770732164383e-02</threshold>
            <left_node>3</left_node>
            <right_node>1</right_node></_>
          <_>
            <!-- node 1 -->
            <feature>
              <rects>
                <_>
                  11 2 14 4 -1.</_>
                <_>
                  11 4 14 2 2.</_></rects>
              <tilted>0</tilted></feature>
            <threshold>-6.4666166901588440e-02</threshold>
            <left_val>7.1003121137619019e-01</left_val>
            <right_node>2</right_node></_>
          <_>
            <!-- node 2 -->
            <feature>
              <rects>
                <_>
                  9 5 6 7 -1.</_>
                <_>
                  11 5 2 7 3.</_></rects>
              <tilted>0</tilted></feature>
            <threshold>-1.9093239679932594e-03</threshold>
            <left_val>5.7533521205186844e-02</left_val>
            <right_val>-7.3107838630676270e-01</right_val></_>
          <_>
            <!-- node 3 -->
            <feature>
              <rects>
                <_>
                  4 12 2 3 -1.</_>
                <_>
                  5 12 1 3 2.</_></rects>
              <tilted>0</tilted></feature>
            <threshold>-1.5389359759865329e-05</threshold>
            <left_val>8.4157550334930420e-01</left_val>
            <right_val>-4.7468859702348709e-02</right_val></_></_>
        <_>
          <!-- tree 3 -->
          <_>
            <!-- root node -->
            <feature>
              <rects>
                <_>
                  32 13 2 1 -1.</_>
                <_>
                  33 13 1 1 2.</_></rects>
              <tilted>0</tilted></feature>
            <threshold>1.4406779882847331e-05</threshold>
            <left_node>3</left_node>
            <right_node>1</right_node></_>
          <_>
            <!-- node 1 -->
            <feature>
              <rects>
                <_>
                  13 14 3 1 -1.</_>
                <_>
                  14 14 1 1 3.</_></rects>
              <tilted>0</tilted></feature>
            <threshold>2.7043488807976246e-04</threshold>
            <left_node>2</left_node>
            <right_val>-5.3082638978958130e-01</right_val></_>
          <_>
            <!-- node 2 -->
            <feature>
              <rects>
                <_>
                  17 14 3 1 -1.</_>
                <_>
                  18 14 1 1 3.</_></rects>
              <tilted>0</tilted></feature>
            <threshold>3.1834829133003950e-04</threshold>
            <left_val>6.4755111932754517e-01</left_val>
            <right_val>-5.8953350782394409e-01</right_val></_>
          <_>
            <!-- node 3 -->
            <feature>
              <rects>
                <_>
                  16 13 19 2 -1.</_>
                <_>
                  16 14 19 1 2.</_></rects>
              <tilted>0</tilted></feature>
            <threshold>-1.0854390449821949e-02</threshold>
            <left_val>1.5614299476146698e-01</left_val>
            <right_val>-6.7941212654113770e-01</right_val></_></_>
        <_>
          <!-- tree 4 -->
          <_>
            <!-- root node -->
            <feature>
              <rects>
                <_>
                  10 0 8 1 -1.</_>
                <_>
                  12 0 4 1 2.</_></rects>
              <tilted>0</tilted></feature>
            <threshold>-1.3118470087647438e-03</threshold>
            <left_val>-7.1994411945343018e-01</left_val>
            <right_node>1</right_node></_>
          <_>
            <!-- node 1 -->
            <feature>
              <rects>
                <_>
                  7 2 12 5 -1.</_>
                <_>
                  11 2 4 5 3.</_></rects>
              <tilted>0</tilted></feature>
            <threshold>-1.0012489743530750e-02</threshold>
            <left_val>7.2083330154418945e-01</left_val>
            <right_node>2</right_node></_>
          <_>
            <!-- node 2 -->
            <feature>
              <rects>
                <_>
                  1 3 3 1 -1.</_>
                <_>
                  2 3 1 1 3.</_></rects>
              <tilted>0</tilted></feature>
            <threshold>-3.2270629890263081e-04</threshold>
            <left_val>6.2250918149948120e-01</left_val>
            <right_node>3</right_node></_>
          <_>
            <!-- node 3 -->
            <feature>
              <rects>
                <_>
                  2 4 2 1 -1.</_>
                <_>
                  3 4 1 1 2.</_></rects>
              <tilted>0</tilted></feature>
            <threshold>-3.2881178776733577e-04</threshold>
            <left_val>6.6366058588027954e-01</left_val>
            <right_val>-7.3162448406219482e-01</right_val></_></_>
        <_>
          <!-- tree 5 -->
          <_>
            <!-- root node -->
            <feature>
              <rects>
                <_>
                  3 13 2 1 -1.</_>
                <_>
                  4 13 1 1 2.</_></rects>
              <tilted>0</tilted></feature>
            <threshold>-2.8134760214015841e-05</threshold>
            <left_node>1</left_node>
            <right_node>2</right_node></_>
          <_>
            <!-- node 1 -->
            <feature>
              <rects>
                <_>
                  9 14 3 1 -1.</_>
                <_>
                  10 14 1 1 3.</_></rects>
              <tilted>0</tilted></feature>
            <threshold>8.2356441998854280e-04</threshold>
            <left_val>4.9690559506416321e-01</left_val>
            <right_val>-7.9387050867080688e-01</right_val></_>
          <_>
            <!-- node 2 -->
            <feature>
              <rects>
                <_>
                  24 7 1 4 -1.</_>
                <_>
                  24 7 1 2 2.</_></rects>
              <tilted>1</tilted></feature>
            <threshold>-4.9489559605717659e-03</threshold>
            <left_val>6.1452931165695190e-01</left_val>
            <right_node>3</right_node></_>
          <_>
            <!-- node 3 -->
            <feature>
              <rects>
                <_>
                  13 4 12 8 -1.</_>
                <_>
                  13 6 12 4 2.</_></rects>
              <tilted>0</tilted></feature>
            <threshold>1.0651890188455582e-01</threshold>
            <left_val>-7.1090531349182129e-01</left_val>
            <right_val>7.8514438867568970e-01</right_val></_></_></trees>
      <stage_threshold>-1.9037230014801025e+00</stage_threshold>
      <parent>9</parent>
      <next>-1</next></_>
    <_>
      <!-- stage 11 -->
      <trees>
        <_>
          <!-- tree 0 -->
          <_>
            <!-- root node -->
            <feature>
              <rects>
                <_>
                  19 3 14 8 -1.</_>
                <_>
                  19 3 7 4 2.</_>
                <_>
                  26 7 7 4 2.</_></rects>
              <tilted>0</tilted></feature>
            <threshold>-7.5659282505512238e-02</threshold>
            <left_node>1</left_node>
            <right_node>2</right_node></_>
          <_>
            <!-- node 1 -->
            <feature>
              <rects>
                <_>
                  15 12 9 3 -1.</_>
                <_>
                  18 12 3 3 3.</_></rects>
              <tilted>0</tilted></feature>
            <threshold>6.4495950937271118e-03</threshold>
            <left_val>8.7518960237503052e-01</left_val>
            <right_val>-6.4341300725936890e-01</right_val></_>
          <_>
            <!-- node 2 -->
            <feature>
              <rects>
                <_>
                  27 14 8 1 -1.</_>
                <_>
                  31 14 4 1 2.</_></rects>
              <tilted>0</tilted></feature>
            <threshold>2.1237549372017384e-03</threshold>
            <left_val>-7.4522620439529419e-01</left_val>
            <right_node>3</right_node></_>
          <_>
            <!-- node 3 -->
            <feature>
              <rects>
                <_>
                  13 11 10 3 -1.</_>
                <_>
                  13 12 10 1 3.</_></rects>
              <tilted>0</tilted></feature>
            <threshold>-1.0681450366973877e-02</threshold>
            <left_val>6.0621488094329834e-01</left_val>
            <right_val>-3.4449389576911926e-01</right_val></_></_>
        <_>
          <!-- tree 1 -->
          <_>
            <!-- root node -->
            <feature>
              <rects>
                <_>
                  3 11 1 2 -1.</_>
                <_>
                  3 11 1 1 2.</_></rects>
              <tilted>1</tilted></feature>
            <threshold>4.1253308882005513e-04</threshold>
            <left_node>1</left_node>
            <right_val>-6.1666208505630493e-01</right_val></_>
          <_>
            <!-- node 1 -->
            <feature>
              <rects>
                <_>
                  9 14 3 1 -1.</_>
                <_>
                  10 14 1 1 3.</_></rects>
              <tilted>0</tilted></feature>
            <threshold>5.4823188111186028e-04</threshold>
            <left_node>2</left_node>
            <right_val>-7.2378337383270264e-01</right_val></_>
          <_>
            <!-- node 2 -->
            <feature>
              <rects>
                <_>
                  5 14 6 1 -1.</_>
                <_>
                  7 14 2 1 3.</_></rects>
              <tilted>0</tilted></feature>
            <threshold>5.3608062444254756e-04</threshold>
            <left_node>3</left_node>
            <right_val>-3.5537189245223999e-01</right_val></_>
          <_>
            <!-- node 3 -->
            <feature>
              <rects>
                <_>
                  8 0 21 1 -1.</_>
                <_>
                  15 0 7 1 3.</_></rects>
              <tilted>0</tilted></feature>
            <threshold>-8.4338411688804626e-03</threshold>
            <left_val>-2.6306769251823425e-01</left_val>
            <right_val>8.1691592931747437e-01</right_val></_></_>
        <_>
          <!-- tree 2 -->
          <_>
            <!-- root node -->
            <feature>
              <rects>
                <_>
                  4 3 28 3 -1.</_>
                <_>
                  11 3 14 3 2.</_></rects>
              <tilted>0</tilted></feature>
            <threshold>-4.8363320529460907e-02</threshold>
            <left_node>1</left_node>
            <right_node>2</right_node></_>
          <_>
            <!-- node 1 -->
            <feature>
              <rects>
                <_>
                  13 0 16 2 -1.</_>
                <_>
                  17 0 8 2 2.</_></rects>
              <tilted>0</tilted></feature>
            <threshold>-1.2771500274538994e-02</threshold>
            <left_val>-6.2498962879180908e-01</left_val>
            <right_node>3</right_node></_>
          <_>
            <!-- node 2 -->
            <feature>
              <rects>
                <_>
                  7 7 9 7 -1.</_>
                <_>
                  10 7 3 7 3.</_></rects>
              <tilted>0</tilted></feature>
            <threshold>-1.7237560823559761e-02</threshold>
            <left_val>4.1116219758987427e-01</left_val>
            <right_val>-4.8060628771781921e-01</right_val></_>
          <_>
            <!-- node 3 -->
            <feature>
              <rects>
                <_>
                  18 14 3 1 -1.</_>
                <_>
                  19 14 1 1 3.</_></rects>
              <tilted>0</tilted></feature>
            <threshold>-3.9498548721894622e-04</threshold>
            <left_val>-7.0815682411193848e-01</left_val>
            <right_val>8.3393311500549316e-01</right_val></_></_>
        <_>
          <!-- tree 3 -->
          <_>
            <!-- root node -->
            <feature>
              <rects>
                <_>
                  16 14 3 1 -1.</_>
                <_>
                  17 14 1 1 3.</_></rects>
              <tilted>0</tilted></feature>
            <threshold>-2.1895610552746803e-04</threshold>
            <left_val>-6.5374702215194702e-01</left_val>
            <right_node>1</right_node></_>
          <_>
            <!-- node 1 -->
            <feature>
              <rects>
                <_>
                  15 14 4 1 -1.</_>
                <_>
                  16 14 2 1 2.</_></rects>
              <tilted>0</tilted></feature>
            <threshold>4.7457360778935254e-04</threshold>
            <left_node>2</left_node>
            <right_val>-7.2910380363464355e-01</right_val></_>
          <_>
            <!-- node 2 -->
            <feature>
              <rects>
                <_>
                  1 9 1 6 -1.</_>
                <_>
